tree
version=v4
num_class=1
num_tree_per_iteration=1
label_index=0
max_feature_idx=23
objective=binary sigmoid:1
feature_names=ICULOS HR O2Sat Temp SBP MAP DBP Resp BaseExcess FiO2 pH PaCO2 BUN Calcium Creatinine Glucose Magnesium Potassium Hct Hgb WBC Platelets Age Sex
feature_infos=[-1.4113009198423128:20.533508541392901] [-3.7292549969715316:7.7183525136281039] [-26.819444444444443:0.95833333333333515] [-22.422535211267608:5.1267605633802829] [-4.6475890040558809:7.7904461469130233] [-3.8726925525143221:13.886696371737745] [-3.176165803108808:17.253145817912657] [-3.4848484848484849:16.515151515151516] [-6.9439528023598811:29.634218289085542] [-2.7777777777777777:8.3333333333333339] [-12.666666666666664:4.8333333333333339] [-3.3406593406593408:8.1978021978021971] [-1.1928965094917332:13.136558481322721] [-3.2018779342723009:9.0046948356807519] [-0.78980891719745216:14.324840764331208] [-2.7552365262414682:20.167804189220995] [-4.1621621621621623:18.54054054054054] [-4.3571428571428559:15.821428571428569] [-3.5524344569288386:6.204119850187265] [-3.6256684491978608:5.5187165775401059] [-2.1154562383612663:21.832402234636866] [-2.0627480424755977:11.559476563337981] [-2.9235145385587864:2.3862199747155497] [0:1]
tree_sizes=3346 3349 3378 3363 3398 3395 3399 3402 3392 3392

Tree=0
num_leaves=31
num_cat=0
split_feature=0 3 3 0 22 22 10 20 22 22 20 13 20 20 0 18 9 13 3 6 19 11 0 13 13 14 15 0 17 20
split_gain=5637.38 1053.94 629.875 573.786 542.944 426.977 365.979 354.616 311.627 286.206 268.011 428.621 238.175 234.425 249.149 228.52 228.42 227.553 222.458 218.354 210.585 277.73 205.847 258.411 413.564 202.9 197.496 217.766 195.758 190.198
threshold=2.1695137976346914 1.8521126760563351 1.4225352112676031 10.973718791064391 0.38147914032869812 -0.11030341340075836 -2.5833333333333224 0.81750465549348228 -1.0907079646017694 1.2948798988621999 1.804469273743017 0.3896713615023471 0.7802607076350091 -0.43016759776536334 1.4467805519053878 0.75936329588014984 0.86111111111111138 0.10798122065727679 1.4225352112676031 -1.4274611398963726 -0.75133689839572193 -1.1703296703296702 3.2864651773981604 0.072769953051643119 0.21361502347417846 0.25159235668789809 -0.43116027300541276 11.630749014454667 1.705357142857143 -1.770949720670391
decision_type=2 2 2 2 2 2 2 2 2 2 2 2 2 2 2 2 2 2 2 2 2 2 2 2 2 2 2 2 2 2
left_child=2 3 25 6 16 7 -2 26 20 29 15 -12 -6 17 -15 -7 19 -11 -10 -3 22 -22 28 -24 -25 -1 -5 -28 -8 -4
right_child=1 4 9 5 12 10 8 -9 18 13 11 -13 -14 14 -16 -17 -18 -19 -20 -21 21 -23 23 24 -26 -27 27 -29 -30 -31
leaf_value=-3.6559467128132783 -1.4016513950960343 -0.9930700843217446 -1.9067656529213921 -0.045533939107299304 -1.7433723108971348 -3.1985701684658405 -3.4106883212079002 -3.0419631775451972 -3.4147243154980917 -3.1655921762563559 -0.36855762497585953 -3.1744300335988598 -3.0255001943271855 -3.3582998033641278 -1.5921321926598098 -1.1222795586691698 -1.7683269304062941 -1.1516453482935862 -3.1302193588132492 -3.0674852700391497 -2.0533478297020875 -3.349626995524599 -3.0425750614016174 -0.5480152282361721 -2.6123565612241508 -3.5876471461310251 -2.8450725499681715 -0.35876902843439185 -1.7014944436748698 -3.531235142211218
leaf_weight=3831.9687190167606 0.95452236197888751 0.5159580335021009 0.72234124690294166 0.92872446030378353 6.0109110902994862 24.611198198050268 6.4236775171011713 1.8058531172573564 346.87858592346311 1.109309772029522 0.92872446030378286 1.3156929854303596 1.9090447239577768 12.924748739227649 0.85133075527846891 0.54175593517720599 1.4962782971560944 1.135107673704624 29.848172238096595 30.673705091699961 1.7542573139071489 28.584075056016445 4.6694202031940204 1.3930866904556749 3.1989398077130318 490.6502919588238 0.92872446030378608 0.56755383685231209 0.74813914857804764 326.42084989510477
leaf_count=148538 37 20 28 36 233 954 249 70 13446 43 36 51 74 501 33 21 58 44 1157 1189 68 1108 181 54 124 19019 36 22 29 12653
internal_value=-3.60375 -3.28347 -3.63784 -3.32693 -2.79527 -2.91604 -3.35755 -1.98105 -3.36196 -3.50744 -3.06042 -2.01338 -2.05242 -3.09475 -3.24915 -3.15385 -2.97527 -2.14704 -3.39218 -3.03317 -3.11851 -3.27467 -2.8302 -2.51875 -1.9861 -3.64819 -1.19101 -1.90199 -3.23239 -3.52765
internal_weight=0 496.687 4665.78 456.081 40.6059 31.6282 424.453 4.23086 423.498 343.164 27.3974 2.24442 7.91996 16.0205 13.7761 25.153 32.6859 2.24442 376.727 31.1897 46.7716 30.3383 16.4333 9.26145 4.59203 4322.62 2.425 1.49628 7.17182 327.143
internal_count=200112 19253 180859 17679 1574 1226 16453 164 16416 13302 1062 87 307 621 534 975 1267 87 14603 1209 1813 1176 637 359 178 167557 94 58 278 12681
is_linear=0
shrinkage=1


Tree=1
num_leaves=31
num_cat=0
split_feature=0 3 9 14 9 13 17 6 0 20 3 13 18 13 19 20 21 7 0 11 12 17 14 0 20 10 18 3 16 17
split_gain=2947.31 460.158 202.118 177.976 175.934 212.479 185.964 164.579 156.57 148.316 141.986 163.529 212.808 155.263 137.157 136.118 146.024 353.987 180.9 117.949 114.46 114.204 233.994 113.927 163.017 114.82 199.884 112.996 177.266 112.793
threshold=2.1038107752956638 1.4225352112676031 -1.5833333333333333 0.022292993630573198 1.416666666666667 -3.0868544600938965 0.026785714285715304 -0.87231680236861553 12.287779237844942 -1.9199255121042831 1.2183098591549275 0.6244131455399059 0.40355805243445719 -3.1431924882629105 2.5508021390374336 0.4450651769087523 2.5977689584897568 1.5404040404040404 1.1839684625492775 2.0576923076923079 -0.77954684629516224 -0.25892857142857062 -0.54458598726114638 1.578186596583443 -0.87709497206703912 1.0833333333333401 -1.2256554307116103 3.8169014084507009 -1.0000000180025095e-35 -1.5089285714285705
decision_type=2 2 2 2 2 2 2 2 2 2 2 2 2 2 2 2 2 2 2 2 2 2 2 2 2 2 2 2 2 2
left_child=1 3 -2 -1 7 6 -6 19 -7 -5 14 13 -13 -12 -9 -11 -17 18 -18 -4 21 -15 -23 27 -25 -26 -27 29 -29 -3
right_child=2 23 4 9 5 8 -8 10 -10 15 11 12 -14 20 -16 16 17 -19 -20 -21 -22 22 -24 24 25 26 -28 28 -30 -31
leaf_value=-0.051892999321399291 -0.092390159804771443 0.32785228984622611 0.27500119178334492 1.2385731278177978 2.1595632155844728 0.29889547872785699 0.58513463037139901 0.12745116775911269 1.7535989159093195 -0.024111875903802104 1.3341820061462031 0.42085238713387785 1.8544871807275554 0.31730476836907306 1.3796160304335841 0.056779423200422702 0.13592401386657305 2.7907387769150929 1.8824160698214958 0.78392539778354553 0.19178582076960293 0.12276733817424042 2.0352824944174275 1.7068436526403408 0.15035344454229482 2.2636961211195716 0.36003768236500838 2.2702311979111554 0.1495992495094865 0.042390373603537687
leaf_weight=3393.1268465556204 25.541990540921688 14.429144401103256 94.8562719412148 0.96918043494224448 1.193065591156482 40.548099368810654 2.0211006198078394 413.98058345913887 0.75362779200076957 552.1891022529453 1.2478880044072855 4.1604483854025593 1.3784623742103574 5.194765780121088 0.87662368640303512 176.1978066675365 6.2860958576202384 0.62208906561136235 0.65485164523124684 4.7836024202406398 131.77937467582524 1.2115536499768498 1.3554241433739651 0.77357875555753963 21.453545318916444 0.71832313016057048 2.3759918920695773 0.58991608582437027 1.187995946034788 339.8813556060195
leaf_count=138202 789 428 2598 37 37 946 50 12092 20 21530 26 86 36 120 28 6889 246 24 25 124 2919 21 35 28 665 26 86 21 43 11935
internal_value=0 -0.0325135 0.183954 -0.0422189 0.193961 0.386386 1.16955 0.180999 0.325439 0.00232552 0.15997 0.244665 0.777639 0.223697 0.130097 0.00069749 0.075248 0.505514 0.300699 0.299434 0.213766 0.586947 1.13262 0.0725802 0.277532 0.23249 0.801958 0.0580061 0.853231 0.0540157
internal_weight=0 4511.46 730.883 4130.05 705.341 44.5159 3.21417 660.825 41.3017 736.919 561.185 146.328 5.53891 140.789 414.857 735.95 183.761 7.56304 6.94095 99.6399 139.541 7.76174 2.56698 381.41 25.3214 24.5479 3.09432 356.088 1.77791 354.311
internal_count=200112 180185 19927 166953 19138 1053 87 18085 966 28751 15363 3243 122 3121 12120 28714 7184 295 271 2722 3095 176 56 13232 805 777 112 12427 64 12363
is_linear=0
shrinkage=0.1


Tree=2
num_leaves=31
num_cat=0
split_feature=0 3 8 11 8 9 20 20 12 20 15 11 5 7 11 16 21 19 20 8 9 12 8 16 19 17 0 0 14 18
split_gain=2020.02 346.932 178.197 186.472 172.059 125.054 111.498 140.389 110.011 109.121 108.487 116.252 108.84 103.444 143.647 288.345 123.896 102.815 473.443 102.15 96.886 114.302 196.503 117.79 96.5178 95.4873 100.423 92.4165 92.2774 186.524
threshold=1.9067017082785809 1.2605633802816898 -1.4498525073746309 3.3969780219780219 -1.5752212389380527 -1.5833333333333333 2.2513966480446927 2.6983240223463691 0.36864666258420092 2.3631284916201118 1.1809837608849143 1.4258241758241759 -1.766709102482495 1.2373737373737377 -0.75137362637362659 1.1081081081081081 -0.74879330687546919 3.2192513368983957 0.83612662942271876 0.32743362831858408 -0.30555555555555547 -0.16717697489283528 0.71091445427728617 0.56756756756756765 -2.582887700534759 -0.43749999999999928 3.6806833114323259 4.0091984231274642 -0.21974522292993634 1.868913857677903
decision_type=2 2 2 2 2 2 2 2 2 2 2 2 2 2 2 2 2 2 2 2 2 2 2 2 2 2 2 2 2 2
left_child=1 2 3 4 -1 -2 13 9 17 -8 12 -12 -3 -7 15 -15 -16 19 -19 -4 -18 -22 -23 -24 -10 -11 -27 -9 -21 -30
right_child=5 10 8 -5 -6 6 7 27 24 25 11 -13 -14 14 16 -17 20 18 -20 28 21 22 23 -25 -26 26 -28 -29 29 -31
leaf_value=0.07035914665299782 -0.091589872273507733 0.47616427380516302 -0.059908977778684348 1.6934894296718306 1.6708019907921479 0.11194523017259889 0.32691800524609205 -0.039144192745052993 1.4585962196680342 1.7590664480003531 0.18930438493564042 1.2764745879816255 0.029413838254412707 0.30607313333359115 0.028296689703112988 1.4728604302199091 0.12119734033596641 -0.10245304043894624 3.024521285763206 -0.039821051284767726 0.15195863124263551 0.32613557135372578 0.71285718624064631 1.7611511141274954 -0.0090328728856501235 0.14290240814462049 1.071448848255649 0.38018330387650995 0.053594426146525209 0.89352517053832869
leaf_weight=91.804060120135546 24.713409893214703 5.5201992392539969 2777.2882161699235 0.72373746708035369 0.67668589577078719 696.38920414075255 9.1643551085144264 12.078425059095027 0.44840889796614547 1.0197226405143736 31.899960052222013 1.0148580893874157 449.85571038350463 29.958710070699453 50.197758916765451 2.2791455909609786 46.574082221835852 2.3837247602641578 0.60761611536145199 199.57852404564619 20.957069337368011 20.363858740776781 3.7572516091167918 1.4996988717466591 649.963109979406 1.9621387533843506 2.8659697212278843 9.3047451227903348 106.99510445445776 2.7109026685357085
leaf_count=3669 842 191 118330 28 28 17024 200 316 19 28 1038 36 15360 623 1178 53 959 102 26 8540 486 394 83 36 25669 48 39 127 4524 116
internal_value=0 -0.0318846 -0.0419973 0.0945824 0.0820697 0.13036 0.136398 0.307885 -0.045401 0.542285 0.0475019 0.222825 0.0348295 0.12924 0.197833 0.388562 0.15494 -0.0532702 0.532714 -0.0538381 0.223186 0.325167 0.466845 1.01191 -0.00802106 0.879795 0.694088 0.143323 0.000676317 0.0743496
internal_weight=0 4321.47 3833.18 93.2045 92.4807 933.086 908.372 36.3954 3739.98 15.0122 488.291 32.9148 455.376 871.977 175.588 32.2379 143.35 3089.56 2.99134 3086.57 93.152 46.5779 25.6208 5.25695 650.412 5.84783 4.82811 21.3832 309.285 109.706
internal_count=200112 177676 161051 3725 3697 22436 21594 758 157326 315 16625 1074 15551 20836 3812 676 3136 131638 128 131510 1958 999 513 119 25688 115 87 443 13180 4640
is_linear=0
shrinkage=0.1


Tree=3
num_leaves=31
num_cat=0
split_feature=0 3 8 3 0 18 21 22 0 20 11 16 20 20 19 20 6 21 7 17 15 21 22 15 14 15 12 9 10 19
split_gain=1487.38 261.459 140.08 114.017 110.523 102.836 139.004 158.288 180.736 97.8179 140.841 109.854 242.159 160.989 497.056 133.405 89.2011 107.947 211.624 87.0978 173.339 97.9739 216.174 92.1869 88.1014 85.2571 130.342 83.8755 81.6119 89.2914
threshold=1.7752956636005257 1.2605633802816898 -1.4498525073746309 0.96478873239436458 2.3666228646517742 -1.0571161048689131 -0.25538989595623723 -0.017699115044247853 0.067017082785808132 0.3333333333333332 1.6387362637362639 -0.1756756756756758 1.804469273743017 0.7802607076350091 0.42513368983957217 2.9776536312849164 -1.6495188749074756 1.8469376810039688 -0.47979797979797972 -1.5089285714285705 1.769357495881384 0.59197683149200908 0.67730720606826789 -0.78418451400329459 0.60509554140127386 -1.3137208755001173 1.2872014696876917 1.805555555555556 -1.0833333333333248 -2.0080213903743314
decision_type=2 2 2 2 2 2 2 2 2 2 2 2 2 2 2 2 2 2 2 2 2 2 2 2 2 2 2 2 2 2
left_child=1 2 5 4 25 6 -1 8 -8 -4 16 12 13 14 -12 -14 17 27 -19 20 21 -3 23 -23 -21 26 -2 -11 -6 -30
right_child=3 19 9 -5 28 -7 7 -9 -10 10 11 -13 15 -15 -16 -17 -18 18 -20 24 -22 22 -24 -25 -26 -27 -28 -29 29 -31
leaf_value=0.064420785460709118 0.18091712679574762 0.047681802837089997 -0.052476554221842754 0.14555462436597566 0.24078164664438717 0.041608577135036295 0.81059919295569027 0.11439264444176145 2.7468417737663753 0.082845072661155164 -0.10237325678886983 0.08567385330085453 3.1509912311379318 0.0082609891802084747 3.675558318712087 0.91868989007068425 -0.025537967874080178 2.8507877975134535 0.20690143335664035 0.018588727352374546 1.4601184839413914 0.91847154799788278 1.7778237174512506 -0.10429685336339911 0.23022338947741613 -0.0057548432349594728 1.6847790081423744 1.2098638694068864 0.79588886363585021 0.085608356178966033
leaf_weight=5.9555413722991943 2.7807529084384437 16.790659403428442 2748.9598842505366 365.02564861439168 37.397511001676321 92.946478892117739 1.7408733665943148 1.8376903235912303 0.66671426221728314 17.803680121898658 1.0178420711308742 16.380329769104719 0.49173649586737134 4.5146760940551758 0.52938309125602234 0.58762305416166782 754.03421992249787 0.44019458629190922 0.96957914158701786 456.75155750848353 1.0853823088109482 1.2715122401714323 1.1156952530145643 2.8715291265398255 20.555458446964622 160.71645098365843 0.72700037248432625 0.68578360415995021 1.7758112661540497 532.18741948716342
leaf_count=215 74 385 121519 6189 599 3337 42 69 24 752 45 601 19 192 23 26 32258 19 41 15177 21 36 29 74 633 5378 24 29 41 12241
internal_value=0 -0.0308956 -0.0401903 0.0998644 0.0771912 0.074687 0.376086 0.81331 1.34679 -0.0435315 -0.0126964 0.228366 0.555669 0.309948 1.19025 1.93569 -0.0200228 0.18896 1.03244 0.0368875 0.22638 0.16565 0.54231 0.209594 0.0277029 0.0048898 0.4926 0.124647 0.0979726 0.0879705
internal_weight=0 4150 3649.56 1100.61 735.585 103.147 10.2008 4.24528 2.40759 3546.41 797.455 23.5216 7.14126 6.0619 1.54723 1.07936 773.933 19.8992 1.40977 500.442 23.1348 22.0494 5.25874 4.14304 477.307 164.224 3.50775 18.4895 571.361 533.963
internal_count=200112 175566 159211 24546 18357 3687 350 135 66 155524 34005 906 305 260 68 45 33099 841 60 16355 545 524 139 110 15810 5476 98 781 12881 12282
is_linear=0
shrinkage=0.1


Tree=4
num_leaves=31
num_cat=0
split_feature=0 3 11 12 17 22 15 11 19 10 22 3 0 8 14 21 3 17 11 22 6 15 14 14 9 0 18 20 18 19
split_gain=1146.64 223.949 144.318 105.978 142.543 325.55 131.644 156.142 130.075 95.2637 118.298 83.4499 81.6698 119.203 203.588 95.4607 188.036 114.507 151.133 78.2473 111.972 162.249 184.603 318.64 77.1595 73.3343 76.7879 69.6837 81.1514 239.474
threshold=1.7752956636005257 1.6690140845070409 -0.99862637362637341 0.07777097366809553 -1.5267857142857135 -2.5679519595448794 1.0397740644857618 -0.18818681318681327 -1.0000000180025095e-35 3.2500000000000053 -0.52212389380530977 3.0774647887323932 -0.39290407358738499 2.3480825958702067 -0.092356687898089235 -1.2207443955808215 -1.9225352112676084 2.2410714285714293 -0.32554945054945061 1.510429835651075 -0.17209474463360439 0.12191103789126871 -0.028662420382165626 -0.092356687898089235 -1.5833333333333333 2.3666228646517742 2.3932584269662929 1.3389199255121043 -1.2069288389513104 -1.0187165775401068
decision_type=2 2 2 2 2 2 2 2 2 2 2 2 2 2 2 2 2 2 2 2 2 2 2 2 2 2 2 2 2 2
left_child=1 2 9 4 5 -4 -7 8 -8 -1 -11 24 13 15 -15 16 -5 -18 -19 27 21 22 23 -21 -2 26 -26 -17 29 -29
right_child=11 -3 3 12 -6 6 7 -9 -10 10 -12 -13 -14 14 -16 19 17 18 -20 20 -22 -23 -24 -25 25 -27 -28 28 -30 -31
leaf_value=0.029240736713799072 -0.092088074804574427 0.059757898510058138 2.7587424543130439 1.7444056041439184 -0.055221567532456509 0.026326311598513882 0.44178370894525953 0.27416668690641638 2.5712418425228751 1.7985350619464804 0.019081793829765426 0.31380139814366198 -0.030697928105764889 0.20549400415612482 2.4320771839203168 -0.018734761534368191 0.087993335994732483 1.7234798212015887 -0.10257976752699934 0.70336733814354424 -0.023954936489853335 -0.058943213738194278 0.4610863206300036 3.9893076573893724 0.029264496269631037 0.095511208944563442 1.110014887149565 -0.10267925885153446 0.11194315130158755 2.4524354079250297
leaf_weight=278.35310156643391 25.748140102252364 263.62039576843381 0.45411727391183276 0.81215943396091717 2530.0433493275195 62.028916938230395 0.55090336687862873 5.7674612179398528 0.59846990741789319 0.68383735418319702 0.82348607480525859 15.349372953176497 643.11891763471067 1.6007340271025898 0.55235401168465514 204.33253057859838 14.138788141310213 1.037978447973728 0.80455601029097934 0.74472735449671745 6.3708635773509723 2.2857114337384701 2.0775608085095882 0.48880182951688789 228.97523092851043 924.05853173881769 0.65931120328605075 0.97756765782833099 23.143846517428756 0.58710194379091507
leaf_count=11689 890 7750 17 34 115801 2654 23 230 28 29 37 185 26452 58 23 8669 582 25 33 34 276 91 61 22 6644 16805 22 39 884 25
internal_value=0 -0.0293578 -0.0355689 -0.0410905 -0.0513432 0.0900466 0.072469 0.486268 1.55058 0.0335341 0.826378 0.0821367 -0.0115786 0.0357219 0.776702 0.0295334 0.260057 0.184623 0.926118 0.0134705 0.262741 0.589087 1.03644 2.00546 0.0791218 0.0829429 0.0323675 0.000445892 0.159065 0.856062
internal_weight=0 4046 3782.38 3502.52 2599.44 69.3999 68.9458 6.91683 1.14937 279.86 1.50732 1194.79 903.074 259.955 2.15309 257.802 16.7935 15.9813 1.84253 241.009 11.9677 5.5968 3.31109 1.23353 1179.44 1153.69 229.635 229.041 24.7085 1.56467
internal_count=200112 175566 167816 156061 118753 2952 2935 281 51 11755 66 24546 37308 10856 81 10775 674 640 58 10101 484 208 117 56 24361 23471 6666 9617 948 64
is_linear=0
shrinkage=0.1


Tree=5
num_leaves=31
num_cat=0
split_feature=0 3 8 1 3 8 21 15 8 5 3 16 12 4 6 22 0 3 3 20 20 0 20 19 7 21 19 10 13 7
split_gain=902.885 195.974 111.057 85.5031 76.8663 71.9063 174.953 144.661 384.413 64.782 63.6475 63.4841 62.0656 73.9507 61.661 60.102 176.846 74.5546 86.9348 81.264 97.8444 71.441 59.2502 58.8729 60.8545 58.2189 57.913 175.489 58.5223 111.248
threshold=1.7752956636005257 0.96478873239436458 -2.0545722713864305 0.52574197456087268 1.9507042253521101 0.32743362831858408 2.1258178697844046 -0.57236996940456553 1.3008849557522126 -1.4166136218968808 0.96478873239436458 1.1081081081081081 1.1647274954072262 -1.7595763857593505 0.3119911176905999 0.7955120101137797 14.25886990801577 -0.19014084507042472 -0.28873239436619974 0.64990689013035385 0.7802607076350091 7.2943495400788443 1.5623836126629422 -1.9545454545454539 1.6414141414141417 0.69923844256140733 2.2299465240641712 1.0833333333333401 -0.25586854460093911 0.73232323232323238
decision_type=2 2 2 2 2 2 2 2 2 2 2 2 2 2 2 2 2 2 2 2 2 2 2 2 2 2 2 2 2 2
left_child=1 2 -1 5 -3 12 26 8 -8 -5 14 22 -4 -14 15 17 23 18 -2 21 -21 -20 -9 -17 -25 -26 28 -28 29 -7
right_child=10 4 3 9 -6 6 7 11 -10 -11 -12 -13 13 -15 -16 16 -18 -19 19 20 -22 -23 -24 24 25 -27 27 -29 -30 -31
leaf_value=0.11147839999582053 0.11670599798882271 0.0019339848930151388 -0.061566743941349249 0.13660391641474504 0.081620743541184385 0.10799649242302803 2.8721467988783873 -0.046602997489137002 -0.10213815812114663 -0.017867442751812023 0.099714203667888079 1.0113775876242479 0.3364789290138181 -0.013300545492187088 0.01435996301297475 0.84540663964202611 1.3912214712309838 0.052412345685809485 0.087984010007475952 1.4884718798020637 0.45575546564029407 0.83900576712313368 0.90196974790181528 -0.018745454918877868 0.050176666541697369 0.43873069255038255 -0.066062775295191806 1.4355527413154023 -0.027817064124181851 1.4095925297324912
leaf_weight=48.476956907659769 171.04264958202839 600.52820609882474 1948.2655015867203 28.168706310912967 151.61004916206002 3.8034851904958478 0.80682370066642739 4.2944028321653596 0.94176031649112701 750.19240445829928 437.27232395485044 0.89723987504839886 6.2485128883272401 185.04563981480896 280.07009055279195 0.83720000088214774 0.93165476992726226 221.76837133616209 9.2982664946466702 1.1279457770287979 4.9156568702310324 1.4663558676838864 0.7777460291981696 131.28039348684251 11.459523659199478 5.8119910340756169 2.6431213617324825 1.1030748449265955 218.29049702174962 0.79368561878800381
leaf_count=1629 3663 22435 93828 1223 4169 172 35 171 46 34424 6189 34 201 7318 6229 10 14 4763 216 21 92 20 9 2999 237 93 88 22 9726 36
internal_value=0 -0.0279357 -0.0387293 -0.0410393 0.0179966 -0.0504698 0.00211729 0.470324 1.27024 -0.0122772 0.0687747 0.236007 -0.0562298 -0.0018752 0.0526689 0.0718303 0.0177481 0.0916772 0.138031 0.355042 0.648496 0.190288 0.0988479 0.00918249 0.00446974 0.180928 -0.0138274 0.376091 -0.020381 0.332713
internal_weight=0 3952.89 3200.75 3152.27 752.138 2373.91 234.352 7.71797 1.74858 778.361 1277.28 5.96939 2139.56 191.294 840.01 559.94 150.321 409.619 187.851 16.8082 6.0436 10.7646 5.07215 149.389 148.552 17.2715 226.634 3.7462 222.888 4.59717
internal_count=200112 175566 148962 147333 26604 111686 10339 295 81 35647 24546 214 101347 7519 18357 12128 3353 8775 4012 349 113 236 180 3339 3329 330 10044 110 9934 208
is_linear=0
shrinkage=0.1


Tree=6
num_leaves=31
num_cat=0
split_feature=0 3 11 11 18 7 14 9 12 22 23 14 14 18 12 3 17 6 16 1 15 4 19 15 20 14 14 10 15 8
split_gain=710.642 163.553 96.9026 77.3387 86.266 71.575 61.155 56.9932 55.702 103.896 94.3721 168.441 90.0878 112.147 84.3141 65.7313 62.2618 65.1162 59.645 69.4208 83.4842 135.923 154.577 55.6038 91.5609 92.2534 127.354 79.0327 66.1511 63.2367
threshold=1.7095926412614981 0.96478873239436458 -0.72390109890109866 1.6387362637362639 -1.8951310861423216 2.2474747474747478 -0.022292993630573264 -1.5833333333333333 -0.16717697489283528 1.5303413400758537 1.0000000180025095e-35 -0.41082802547770703 -0.6401273885350317 -0.36423220973782738 -0.28965094917330064 2.5211267605633796 -0.41964285714285643 3.2079940784604006 -1.2567567567567564 0.13204118715929783 0.31019063309013911 -0.045290671473636558 -0.3770053475935829 0.63967992468816215 -0.31843575418994424 2.0191082802547773 2.6082802547770707 2.416666666666675 0.66321487408802093 3.2330383480825966
decision_type=2 2 2 2 2 2 2 2 2 2 2 2 2 2 2 2 2 2 2 2 2 2 2 2 2 2 2 2 2 2
left_child=1 2 6 5 -5 -4 -1 -2 9 12 11 -11 13 -3 -13 18 -14 -18 19 -10 21 22 -21 -9 -25 27 -27 28 -26 -30
right_child=7 8 3 4 -6 -7 -8 23 15 10 -12 14 16 -15 -16 -17 17 -19 -20 20 -22 -23 -24 24 25 26 -28 -29 29 -31
leaf_value=-0.02405784714661548 -0.09173989065774163 1.0735797540300873 -0.048990943373782542 1.134734257905329 0.04114813284958993 0.065008517318486572 0.056847636057134367 0.050349833890357104 -0.050558196813045048 0.11615881056033249 0.057093021889055601 2.3181130794697569 0.022980966557559854 -0.1029658005774181 0.7777858017507292 0.19853213867642469 -0.057882506495347701 0.9185644579991824 0.025205632994141032 0.24047488827555752 0.096746952330683839 0.13068349795335948 2.3091254579963589 -0.003428827132662144 0.51998430140160401 1.3466714638450752 0.25255500287470267 0.67157161563119283 0.1029086785727928 0.80155986852040639
leaf_weight=219.76400628127158 25.229136575013399 1.6891638748347761 2548.7056141942739 0.72757493890821834 84.033654095605016 56.291578147560358 162.51934538036585 1106.2596233226359 3.6168272178620082 1.745782067999244 4.3481870535761118 0.74321929179131985 187.72661588154733 1.5568573977798212 0.68096035346388706 25.990549057722092 225.49600920453668 0.68502876721322437 296.55375577695668 0.58152205310761929 2.5005993973463774 1.2824526298791168 0.95349328778684161 61.272013498470187 3.9882413465529671 1.4468840416520823 4.0187728218734264 2.6097435131669036 173.97558381408453 1.3052530474960793
leaf_count=10291 915 39 125473 34 3281 2597 6307 20319 118 42 89 23 6374 58 24 622 8484 23 10287 19 87 44 35 1329 79 37 63 27 2975 17
internal_value=0 -0.0265185 -0.0367732 -0.0434688 0.0505353 -0.0465275 0.0103373 0.0571805 0.0151436 -0.00883552 0.359603 0.774551 -0.0154757 0.509285 1.58162 0.0458642 -0.0195911 -0.0549252 0.0328754 0.287439 0.517312 0.890577 1.52544 0.0599535 0.102687 0.137393 0.542193 0.125228 0.117274 0.108111
internal_weight=0 3828.19 3072.04 2689.76 84.7612 2605 382.283 1380.11 756.151 424.672 7.51815 3.16996 417.154 3.24602 1.42418 331.479 413.908 226.181 305.489 8.93489 5.31807 2.81747 1.53502 1354.88 248.616 187.344 5.46566 181.879 179.269 175.281
internal_count=200112 174351 147983 131385 3315 128070 16598 25761 26368 15156 178 89 14978 97 47 11212 14881 8507 10590 303 185 98 54 24846 4527 3198 100 3098 3071 2992
is_linear=0
shrinkage=0.1


Tree=7
num_leaves=31
num_cat=0
split_feature=0 3 14 4 22 15 12 1 15 0 12 20 20 21 19 5 8 18 5 22 3 17 19 14 21 0 2 13 21 15
split_gain=574.206 174.279 117.949 100.616 85.4086 81.9449 92.4697 76.8878 79.6434 62.881 78.1753 62.2181 60.9146 158.362 60.6305 59.4903 66.5911 64.2102 56.7166 77.6375 119.685 55.6303 84.7443 187.109 55.5431 90.0627 59.1028 61.0524 106.851 74.8331
threshold=2.3009198423127466 1.4225352112676031 0.022292993630573198 -0.81140153222172107 1.688369152970923 -1.3137208755001173 2.8181261481935094 0.46517262265293807 7.0706048481995767 -0.59001314060446775 1.9608083282302513 0.98510242085661071 3.6108007448789574 2.4583288640995389 -1.9545454545454539 -1.5439210693825587 0.11356932153392331 -1.3146067415730334 -1.3211330362826224 1.1855246523388121 0.33098591549295203 -0.75892857142857051 -1.2593582887700534 -0.047770700636942713 -0.33047302370481602 15.967148488830487 1.0000000180025095e-35 0.26056338028169007 -0.2875683792770567 1.4634031536832199
decision_type=2 2 2 2 2 2 2 2 2 2 2 2 2 2 2 2 2 2 2 2 2 2 2 2 2 2 2 2 2 2
left_child=1 2 7 4 5 6 -4 -1 9 10 12 -5 18 -14 -13 16 17 -2 19 -9 -21 22 23 -20 -17 26 27 28 -26 -30
right_child=15 -3 3 11 -6 -7 -8 8 -10 -11 -12 14 13 -15 -16 24 -18 -19 21 20 -22 -23 -24 -25 25 -27 -28 -29 29 -31
leaf_value=-0.050370643968828205 0.86483976042083066 0.032613178885756662 0.15805372205399526 -0.030281816854533017 0.92329553638693707 0.050428009624804961 0.90195289368526022 0.11950886515625044 1.2056162055514192 -0.033975714877751972 0.96367959486709465 1.0592503499934736 0.1015677570099327 1.807850610563027 0.052546582358912165 0.029355706139171517 0.099433706866935229 0.2639288894226608 0.14679929007100284 0.28104785659624004 2.0244988765324079 -0.016180080280199387 0.077123204001877887 2.2129371363442409 0.85769294346242786 0.81899828645462436 0.046251190662277848 0.062781213977017788 0.12890543605895408 0.47479435761475153
leaf_weight=1957.0264542400837 2.3419397473335266 506.0416305642575 5.6721574217081052 468.15612388215959 1.1679856739938248 168.20289881713688 2.3688196893781424 13.423925673589109 0.53524529002606769 548.08208868838847 0.8847937323153009 0.60212989896535773 2.7212661188095804 0.67982427775859822 93.013798125088215 518.76144708879292 24.550693590193987 7.3873850423842651 1.5926316753029826 1.3036818150430907 0.56413166224956501 205.34308196604252 38.957024198025465 0.60473000444471736 2.1674939133226863 1.6174223423004139 365.89404685422778 131.66250255145133 107.88109296187758 6.6398806646466246
leaf_count=100504 27 13428 191 19597 37 6127 57 556 26 25903 19 21 78 20 3185 8367 343 93 67 57 24 10330 1724 30 30 24 5621 2075 1460 91
internal_value=0 -0.0222512 -0.0301591 0.00533338 0.0709851 0.0653368 0.377202 -0.0396245 -0.0138105 -0.0146122 0.0252744 -0.0153999 0.0221434 0.442627 0.0590216 0.0573842 0.187174 0.408574 0.0166806 0.203558 0.807619 0.00508747 0.111204 0.715416 0.0534629 0.0737693 0.0718069 0.109458 0.162125 0.14896
internal_weight=0 4016.94 3510.9 739.184 177.412 176.244 8.04098 2771.72 814.692 814.157 266.075 561.772 265.19 3.40109 93.6159 1168.9 34.28 9.72932 261.789 15.2917 1.86781 246.497 41.1544 2.19736 1134.62 615.862 614.245 248.351 116.688 114.521
internal_count=200112 181981 168553 29215 6412 6375 248 139338 38834 38808 12905 22803 12886 98 3206 18131 463 120 12788 637 81 12151 1821 97 17668 9301 9277 3656 1581 1551
is_linear=0
shrinkage=0.1


Tree=8
num_leaves=31
num_cat=0
split_feature=0 11 17 9 22 3 12 3 12 7 21 18 1 7 2 12 4 4 1 22 19 3 8 7 2 13 13 0 22 3
split_gain=468.493 112.984 101.978 106.012 87.6872 155.951 75.8919 74.9573 133.838 181.242 93.8784 72.2866 101.77 68.5432 90.3868 60.4491 61.099 60.0618 59.1634 57.6235 99.2949 54.5388 55.9903 54.5992 56.3368 99.7512 53.1162 139.227 256.679 49.9177
threshold=1.578186596583443 -0.72390109890109866 -1.5267857142857135 0.25000000000000028 1.5919721871049304 0.33098591549295203 -0.24372320881812617 0.26056338028168841 5.8799755052051443 0.73232323232323238 0.59197683149200908 0.60955056179775347 2.4639612356147795 1.7424242424242424 -1.0000000180025095e-35 6.3086344151867744 -1.4197836863452 3.7007661108607484 0.34403391883706885 1.4996839443742103 -0.16310160427807469 1.9507042253521101 2.64306784660767 0.1262626262626263 0.35069444444444625 -0.068075117370892016 -0.40845070422535212 -0.45860709592641258 -0.017699115044247853 1.9999999999999976
decision_type=2 2 2 2 2 2 2 2 2 2 2 2 2 2 2 2 2 2 2 2 2 2 2 2 2 2 2 2 2 2
left_child=1 -1 11 6 15 -6 -4 18 10 -10 17 -3 13 -13 -15 16 26 -9 -8 -12 -21 22 -18 24 -23 -26 27 -5 -29 -2
right_child=29 2 3 4 5 -7 7 8 9 -11 19 12 -14 14 -16 -17 21 -19 -20 20 -22 23 -24 -25 25 -27 -28 28 -30 -31
leaf_value=0.018864143177917569 0.035524489805011161 0.020239835227263154 -0.062385848985450902 0.047511356159380957 0.08485430514412437 1.6447032313279042 -0.056763993681750981 -0.018229432508121989 2.3488897490922231 -0.10351122835449045 0.089149804309045289 0.14498954093808322 1.3790979223277289 0.049877076159595669 1.8331191487004266 0.98739283063330685 -0.015093009046566417 1.0625016357536379 -0.0051276025453542559 1.4515983943663313 -0.10333057783213165 0.1593604747959888 0.63303531301364224 0.029986126012231103 -0.019862067546324635 1.2310572129859463 0.09688245261577573 2.5550504099859594 -0.10233130190918011 0.094584408814752205
leaf_weight=524.25784062594175 1400.250650299713 72.293814372271299 1036.9608029220253 2.5734063778072596 2.1395135279744859 0.91508920118212689 796.35708688944578 430.16128760948777 0.57108578085899242 0.6380337793380022 77.468957468867302 21.952637301757939 0.73548614978790183 0.56861406750977039 0.56834349036216625 0.6365693025290956 279.16921293176711 0.51485242135822673 307.59913422912359 0.8358140904456377 0.8074050024151791 4.1519203856587437 1.3392734676599491 10.927606604993342 1.0398368835449221 1.6474121585488317 23.704901400953531 0.75237970985472202 0.70321032777428871 159.40097660198808
leaf_count=21113 27044 2676 53048 94 108 32 42461 18825 24 21 2769 751 12 16 26 13 13277 22 14763 29 29 109 30 263 20 42 922 30 33 1510
internal_value=0 -0.024048 -0.0313576 -0.0346258 0.0188518 0.552149 -0.0412745 -0.0277189 0.00394716 1.0548 0.00145475 0.070024 0.221087 0.1842 0.941286 0.0138647 0.0119638 -0.0169375 -0.0423764 0.10158 0.687575 -0.00123699 -0.0119986 0.168671 0.39026 0.747011 0.153937 0.489619 1.27124 0.0415606
internal_weight=0 3601.99 3077.73 2981.61 329.7 3.0546 2651.91 1614.95 510.997 1.20912 509.788 96.1189 23.8251 23.0896 1.13696 326.646 326.009 430.676 1103.96 79.1122 1.64322 298.275 280.508 17.7668 6.83917 2.68725 27.7339 4.029 1.45559 1559.65
internal_count=200112 171558 150445 146964 14973 140 131991 78943 21719 45 21674 3481 805 793 42 14833 14820 18847 57224 2827 58 13741 13307 434 171 62 1079 157 63 28554
is_linear=0
shrinkage=0.1


Tree=9
num_leaves=31
num_cat=0
split_feature=0 3 11 20 21 22 15 13 13 10 18 21 22 7 0 8 8 8 22 15 18 19 7 18 21 3 14 21 14 15
split_gain=382.16 100.077 79.9773 72.3788 75.0919 59.6801 87.7633 246.185 80.9939 164.983 74.6862 238.612 69.2649 57.4528 121.529 115.758 53.5901 52.1598 99.1172 222.737 79.9558 96.0673 103.603 69.0058 59.3371 177.281 54.9771 63.5171 87.5051 209.105
threshold=1.578186596583443 0.96478873239436458 -0.17445054945054936 0.37057728119180627 -1.6819693231792339 0.93015170670037917 3.1343845610731944 0.3896713615023471 -1.5704225352112675 -1.7499999999999922 1.1947565543071161 1.1926418534806393 0.96713021491782591 -1.2878787878787876 0.32982917214191854 0.11356932153392331 1.8613569321533927 0.32743362831858408 -2.1634007585335016 -0.83125441280301215 1.9063670411985028 -0.77807486631016032 1.8939393939393943 -1.2256554307116103 -1.2529228789016409 -0.035211267605636802 -0.022292993630573264 -1.2314705566877613 0.035031847133757864 -0.23111320310661312
decision_type=2 2 2 2 2 2 2 2 2 2 2 2 2 2 2 2 2 2 2 2 2 2 2 2 2 2 2 2 2 2
left_child=1 2 17 -4 -5 -6 8 -8 9 -7 13 12 -12 14 -10 -16 -15 26 19 -19 21 22 24 -21 25 -20 -1 28 29 -28
right_child=-2 -3 3 4 5 6 7 -9 10 -11 11 -13 -14 16 15 -17 -18 18 20 23 -22 -23 -24 -25 -26 -27 27 -29 -30 -31
leaf_value=-0.03884748931290382 0.036152677522846288 0.009567896123649635 -0.050950291783029289 1.1568738657485826 -0.024152133555277733 -0.10259868117329947 -0.10422424965568314 2.7731138277939231 -0.10213040997504219 2.4196506956143806 1.22212537109466 2.384791523281629 0.113943326039685 -0.027994884848559505 2.6692556721137555 0.43538798575985516 0.41293381015895925 2.6111951598859409 2.5070744030044252 1.3217873179531523 0.48740543709052925 -0.024765476988461963 1.3430091393888073 -0.0023878412238484345 0.13369181493188462 -0.10212306272743928 2.6423755151780117 0.0043107378293840148 0.1183635407181487 0.15334254961943614
leaf_weight=353.35996424593031 1610.3807821199298 758.12630496546626 1637.1574113331735 0.55603398382663627 341.31496421247721 0.63955764658749104 0.86891136690974125 0.45206136628985405 1.3865096084773534 0.43622121773660072 0.60422210209071359 0.52275720424950201 8.4760373998433334 62.0180304646492 0.39694373868405808 0.5581574235111475 2.8846432026475659 0.47912107780575786 0.42158384248614311 0.48953232727944929 3.9739695806056252 66.497047854587436 0.81995107792317945 2.0070755649358021 14.085190564393995 0.68111805990338392 0.47368053346872319 243.22963476926088 27.217632126063108 1.1742155253887201
leaf_count=18581 28554 25851 91935 29 16696 26 37 19 70 23 34 27 305 2896 22 28 91 24 21 16 57 3172 20 104 541 34 24 9993 824 58
internal_value=0 -0.0226292 -0.0314312 -0.0414397 -0.00446543 -0.00600087 0.0721791 0.880454 0.058477 0.920157 0.0464144 0.307288 0.187684 0.00915964 0.495793 1.36379 -0.00839751 -0.00261609 0.0688071 0.636262 0.049281 0.0281781 0.248107 0.257255 0.188997 0.895423 -0.0128313 0.0209551 0.161205 0.868804
internal_weight=0 3531.31 2773.18 2058.27 421.115 420.559 79.2441 1.32097 77.9231 1.07578 76.8473 9.60302 9.08026 67.2443 2.34161 0.955101 64.9027 714.91 89.4546 2.97573 86.4789 82.5049 16.0078 2.49661 15.1879 1.1027 625.455 272.095 28.8655 1.6479
internal_count=200112 171558 145707 112238 20303 20274 3578 56 3522 49 3473 366 339 3107 120 50 2987 33469 3989 144 3845 3788 616 120 596 55 29480 10899 906 82
is_linear=0
shrinkage=0.1


end of trees

feature_importances:
ICULOS=29
Temp=27
WBC=24
Age=19
Creatinine=17
Glucose=17
Platelets=16
BaseExcess=15
Hgb=15
Hct=14
PaCO2=13
BUN=13
Calcium=13
Resp=11
Potassium=11
FiO2=9
pH=7
DBP=6
Magnesium=6
HR=5
SBP=5
MAP=4
O2Sat=3
Sex=1

parameters:
[boosting: gbdt]
[objective: binary]
[metric: binary_logloss]
[tree_learner: serial]
[device_type: cpu]
[data_sample_strategy: bagging]
[data: ]
[valid: ]
[num_iterations: 10]
[learning_rate: 0.1]
[num_leaves: 31]
[num_threads: 2]
[seed: 0]
[deterministic: 0]
[force_col_wise: 0]
[force_row_wise: 0]
[histogram_pool_size: -1]
[max_depth: -1]
[min_data_in_leaf: 20]
[min_sum_hessian_in_leaf: 0.001]
[bagging_fraction: 1]
[pos_bagging_fraction: 1]
[neg_bagging_fraction: 1]
[bagging_freq: 0]
[bagging_seed: 3]
[feature_fraction: 1]
[feature_fraction_bynode: 1]
[feature_fraction_seed: 2]
[extra_trees: 0]
[extra_seed: 6]
[early_stopping_round: 0]
[early_stopping_min_delta: 0]
[first_metric_only: 0]
[max_delta_step: 0]
[lambda_l1: 0]
[lambda_l2: 0]
[linear_lambda: 0]
[min_gain_to_split: 0]
[drop_rate: 0.1]
[max_drop: 50]
[skip_drop: 0.5]
[xgboost_dart_mode: 0]
[uniform_drop: 0]
[drop_seed: 4]
[top_rate: 0.2]
[other_rate: 0.1]
[min_data_per_group: 100]
[max_cat_threshold: 32]
[cat_l2: 10]
[cat_smooth: 10]
[max_cat_to_onehot: 4]
[top_k: 20]
[monotone_constraints: ]
[monotone_constraints_method: basic]
[monotone_penalty: 0]
[feature_contri: ]
[forcedsplits_filename: ]
[refit_decay_rate: 0.9]
[cegb_tradeoff: 1]
[cegb_penalty_split: 0]
[cegb_penalty_feature_lazy: ]
[cegb_penalty_feature_coupled: ]
[path_smooth: 0]
[interaction_constraints: ]
[verbosity: 1]
[saved_feature_importance_type: 0]
[use_quantized_grad: 0]
[num_grad_quant_bins: 4]
[quant_train_renew_leaf: 0]
[stochastic_rounding: 1]
[linear_tree: 0]
[max_bin: 255]
[max_bin_by_feature: ]
[min_data_in_bin: 3]
[bin_construct_sample_cnt: 200000]
[data_random_seed: 1]
[is_enable_sparse: 1]
[enable_bundle: 1]
[use_missing: 1]
[zero_as_missing: 0]
[feature_pre_filter: 1]
[pre_partition: 0]
[two_round: 0]
[header: 0]
[label_column: ]
[weight_column: ]
[group_column: ]
[ignore_column: ]
[categorical_feature: ]
[forcedbins_filename: ]
[precise_float_parser: 0]
[parser_config_file: ]
[objective_seed: 5]
[num_class: 1]
[is_unbalance: 0]
[scale_pos_weight: 1]
[sigmoid: 1]
[boost_from_average: 1]
[reg_sqrt: 0]
[alpha: 0.9]
[fair_c: 1]
[poisson_max_delta_step: 0.7]
[tweedie_variance_power: 1.5]
[lambdarank_truncation_level: 30]
[lambdarank_norm: 1]
[label_gain: ]
[lambdarank_position_bias_regularization: 0]
[eval_at: ]
[multi_error_top_k: 1]
[auc_mu_weights: ]
[num_machines: 1]
[local_listen_port: 12400]
[time_out: 120]
[machine_list_filename: ]
[machines: ]
[gpu_platform_id: -1]
[gpu_device_id: -1]
[gpu_use_dp: 0]
[num_gpu: 1]

end of parameters
